14 128
, 0.16941789 0.06896539 0.14155595 0.112750754 -0.18349738 -0.09440973 0.028273802 -0.17199123 0.09495044 0.0752588 -0.13032795 -0.055005617 0.035109557 0.17017831 -0.08931068 -0.13991125 0.06368022 0.018610237 -0.0045324867 -0.09363364 -0.028584722 0.14033265 0.092373714 -0.06340528 -0.11223691 -0.06362486 0.05318299 0.017861357 -0.062493343 -0.07140815 0.11908724 0.09778708 0.11692226 0.14632793 -0.036666255 -0.015248202 -0.06557913 -0.0019344356 -0.18906079 -0.16336758 -0.02533217 -0.113206245 0.08236545 0.27144167 -0.08179848 -0.09950791 -0.17512596 -0.02950696 0.057793748 -0.07548566 0.026184756 0.059206165 0.109925695 -0.07046484 0.14024475 0.211799 0.024892872 0.022076093 -0.107291356 -0.0055665975 0.0603354 -0.0009781913 0.01671632 0.19983806 -0.042308223 -0.023672475 0.10659507 -0.016407201 -0.0067724013 0.0082004685 -0.015956037 0.003256464 -0.079676814 -0.065260686 -0.024451712 0.0058685145 0.025537506 -0.07047716 0.00018510301 0.046686754 0.056979198 -0.11000765 -0.017792596 0.059466988 -0.02614997 0.053267445 0.0034538906 0.017049937 -0.0015632287 0.111945845 0.04607918 -0.086860746 0.073605895 0.035869922 0.014465067 -0.14024705 0.046365682 0.007972349 0.0132778585 -0.029803215 0.041198205 0.03292678 0.14181158 -0.047687847 0.01361964 0.051439557 0.017567514 -0.02065409 -0.061011203 0.10561087 0.10672439 0.076564685 -0.10447933 0.008986972 0.043307815 -0.087954596 -0.016533373 0.09706769 -0.13139516 0.1456594 0.085681416 0.027232828 -0.1106033 -0.016990704 -0.08495393 -0.043713577 -0.011574416 -0.02848597
  0.19311792 0.0858491 0.1449636 0.14088438 -0.16549952 -0.07894983 0.010216091 -0.105967015 0.050922763 0.080954485 -0.0638677 -0.037740134 0.05739622 0.16648063 -0.090175964 -0.11840778 0.07060606 0.04584962 -0.02463917 -0.072430946 -0.025169494 0.10572647 0.110756196 -0.04337581 -0.09586537 -0.0341004 0.07892316 0.022661787 -0.072546706 -0.07910316 0.13248661 0.096112736 0.10169012 0.10489953 -0.036029033 -0.049446065 -0.08341396 -0.0034174146 -0.20411569 -0.18520233 -0.018576207 -0.069226615 0.025983362 0.16955875 -0.058702845 -0.054234374 -0.08078063 -0.016200257 0.031712685 -0.043249797 0.020657087 0.034247577 0.06924031 -0.02255326 0.12954383 0.10729596 -0.00524413 0.01432753 -0.1191933 0.018605292 0.0723051 -0.027704483 0.015309122 0.21619104 -0.04442578 -0.030570453 0.1138145 -0.018895473 -0.018172689 -0.0037198376 -0.022135144 -0.005373625 -0.08889514 -0.14660443 -0.060655408 -0.019987052 0.059027094 -0.21302289 -0.042435832 0.10478604 0.10083177 -0.19102837 -0.061583012 0.10362889 -0.10377305 0.09733656 -0.06950721 -0.0071248845 -0.011308374 0.14704232 0.07045652 -0.06102743 0.09945346 0.01053782 0.012117314 -0.17105699 0.048793398 -0.0053604157 0.0049220202 -0.02076316 0.023176925 0.029985486 0.17678028 -0.08438052 0.044754747 0.04198962 0.026473654 -0.0028596772 -0.04061442 0.06524531 0.07598111 0.06390735 -0.08263002 -0.020839415 0.0035145998 -0.053715643 -0.0059880787 0.08992332 -0.10708149 0.090256356 0.07286182 0.06741074 -0.12503801 0.0016765106 -0.11923464 -0.05224059 0.03616155 -0.0072893933
3 0.17261338 0.09658143 0.13754575 0.14673857 -0.21303119 -0.087661415 -0.00013397617 -0.14672482 0.053638633 0.10251262 -0.04009499 -0.012373887 0.07104825 0.19454165 -0.099564075 -0.12575215 0.068467535 0.037753798 -0.025936794 -0.087047756 -0.018797228 0.112506576 0.12464164 -0.034168936 -0.107401736 -0.04629728 0.101503365 0.01004871 -0.09847671 -0.0841395 0.16710617 0.12865414 0.14267816 0.09898754 -0.043660745 -0.04604753 -0.114359125 -0.020039596 -0.23179166 -0.22629616 -0.026714105 -0.0901928 0.008202813 0.24461296 -0.07935087 -0.06322451 -0.11857634 -0.010762963 0.042218715 -0.077956386 0.020111179 0.022800148 0.07344344 -0.034828946 0.18561046 0.16519636 -0.030590927 0.030936668 -0.18142779 0.038648177 0.08829857 -0.053016055 0.010704116 0.27890286 -0.039533705 -0.022368286 0.13703212 -0.018598888 0.0061563086 -0.0279567 -0.022720933 -0.00039639513 -0.023993542 -0.06395092 -0.038586643 -0.024701018 0.048081752 -0.089823335 -0.020732464 0.053941146 0.03280242 -0.07930433 -0.02308918 0.056239862 -0.05548709 0.047618125 -0.059108987 -0.03970432 -0.0024952302 0.12193248 0.066600665 -0.020622429 0.051110096 -0.017906345 0.024279576 -0.09981407 0.03873662 -0.048072174 -0.008473571 -0.04526593 0.012766458 0.008945245 0.12777579 -0.09223028 0.022362899 0.022083031 0.03856478 0.01768113 -0.028708827 0.049477562 0.048405644 0.062181823 -0.07569012 -0.03808958 0.0076755914 -0.067708045 -0.0026635858 0.11103249 -0.12453744 0.07748929 0.027825957 0.035251413 -0.058175407 -0.013094767 -0.08408695 -0.034600116 0.04941943 0.017522069
1 0.12936217 0.038235027 0.10197858 0.08187649 -0.1424945 -0.07820721 0.012804029 -0.11617153 0.06396887 0.07135104 -0.09334285 -0.04969047 0.039084014 0.15412459 -0.07400007 -0.122705445 0.062248427 0.030727709 -0.019321818 -0.06573996 -0.024006711 0.10154161 0.083770946 -0.04242929 -0.083611004 -0.037642367 0.055614524 0.016798602 -0.048065856 -0.063412294 0.09680215 0.07313284 0.080821075 0.09477066 -0.023609616 -0.0376298 -0.05900665 0.008360608 -0.14946915 -0.14546002 -0.021524906 -0.08938449 0.050444033 0.20809 -0.06243094 -0.08203288 -0.12764917 -0.022067143 0.050629944 -0.05348048 0.026624896 0.054864015 0.098515846 -0.0546224 0.14155605 0.14993274 0.0059756734 0.005096575 -0.10732057 0.0037646738 0.06492305 -0.0149719855 0.0068481965 0.19549714 -0.059599847 -0.023810666 0.1812116 -0.047111906 -0.032528758 0.013636958 -0.032446608 0.002742715 -0.14238597 -0.16916545 -0.0589489 0.009865369 0.05366889 -0.23293568 -0.039314892 0.11476321 0.13503702 -0.24720845 -0.07090073 0.12540509 -0.10482994 0.11711796 -0.046361208 0.017829157 -0.005380496 0.14223751 0.06497617 -0.089958936 0.09833711 0.023120863 0.009434791 -0.18216306 0.04096002 0.016195018 0.008210035 -0.01690876 0.035326764 0.04120945 0.17561601 -0.054790527 0.038338393 0.05658771 0.020955887 -0.016420895 -0.056428276 0.09898649 0.09646366 0.07316873 -0.092652686 -0.002884048 0.019671755 -0.06755903 -0.012044147 0.08433968 -0.11977718 0.11482129 0.06272702 0.043064825 -0.10164783 -0.0031276487 -0.08644724 -0.033593304 0.0112250745 -0.024377557
2 0.14416118 0.082886755 0.11063908 0.12473511 -0.13181493 -0.048393372 -0.0069835386 -0.059183486 0.04896063 0.120176814 -0.03604218 -0.01825131 0.08348834 0.21307075 -0.11386999 -0.13942675 0.081355505 0.05397901 -0.03843499 -0.09138531 -0.025803382 0.12501651 0.1444665 -0.03393319 -0.10835393 -0.037215184 0.11638821 0.0146671925 -0.106088854 -0.097578086 0.19724321 0.14749081 0.1506223 0.10864605 -0.043640204 -0.062927105 -0.12862429 -0.022318756 -0.26876238 -0.25473097 -0.025240581 -0.066293426 -0.008692326 0.19960251 -0.071487226 -0.049627572 -0.07637059 -0.0063883206 0.025702758 -0.061959684 0.016769947 0.016152415 0.05896377 -0.013616792 0.17597453 0.11711957 -0.038394373 0.032472737 -0.19014004 0.049511302 0.093969844 -0.06444083 0.016120296 0.30155596 -0.037524056 -0.034968793 0.12673156 -0.010161931 0.0051255208 -0.035589006 -0.02780098 -0.0071561793 -0.037413336 -0.1085151 -0.057864793 -0.042594567 0.06272012 -0.1591259 -0.039299574 0.08444063 0.055146657 -0.13318002 -0.04294117 0.07920967 -0.09855714 0.068932906 -0.08631527 -0.050603695 -0.008112155 0.15795194 0.078691535 -0.024248555 0.06953579 -0.025397222 0.024812788 -0.12739842 0.050653543 -0.057014085 -0.003383505 -0.048212923 0.010953683 0.012325118 0.15256822 -0.10893239 0.03773939 0.022456488 0.047073565 0.026833465 -0.020230899 0.037496585 0.050517417 0.058260918 -0.07766694 -0.04463759 0.0015350642 -0.06756966 -0.0034859106 0.12325682 -0.1263875 0.068527564 0.026606482 0.042792853 -0.06461968 -0.007527916 -0.092148766 -0.036136154 0.0546775 0.018619178
4 0.15777782 0.081823505 0.12125356 0.1292512 -0.185331 -0.078476414 -0.0016938281 -0.12598944 0.058686957 0.113445155 -0.05372931 -0.022870097 0.069074795 0.20729217 -0.10104959 -0.14009553 0.07430358 0.040260628 -0.030150369 -0.09005246 -0.02300229 0.117926836 0.12656802 -0.03376754 -0.105821215 -0.046846412 0.09980843 0.007250094 -0.098252 -0.08645944 0.17623913 0.13091692 0.1435027 0.10284231 -0.041915935 -0.052530095 -0.115830705 -0.019615306 -0.23710756 -0.2364887 -0.030853597 -0.08458928 0.008207795 0.24884795 -0.0788686 -0.06912286 -0.11960323 -0.0097358 0.044961423 -0.07682823 0.020324849 0.024883777 0.08119177 -0.039485365 0.19072959 0.16363484 -0.033491444 0.027572444 -0.19315521 0.03824924 0.091008194 -0.059581097 0.012374781 0.2950142 -0.038877383 -0.024990682 0.13769491 -0.018231278 0.0046371245 -0.03306335 -0.024045486 -0.00071988476 -0.024959967 -0.065612756 -0.037035864 -0.0262947 0.045747265 -0.094266474 -0.01883567 0.055812124 0.037045375 -0.08500992 -0.027172823 0.05723497 -0.059111625 0.0450214 -0.061311424 -0.039912086 -0.0027280855 0.123578236 0.06726396 -0.024138646 0.049655102 -0.020000832 0.023593623 -0.10282113 0.039400734 -0.046786 -0.00816974 -0.044261366 0.013218654 0.014229173 0.12867406 -0.0888983 0.022532132 0.023764363 0.043499265 0.022633132 -0.027940532 0.04996368 0.050914563 0.060243618 -0.0804672 -0.04100793 0.006985133 -0.07601159 -0.0032885943 0.121356316 -0.13800672 0.08521499 0.017759314 0.025977453 -0.04562315 -0.011262017 -0.069295794 -0.023315964 0.046164818 0.018690415
6 0.11844372 0.010459905 0.100016154 0.04228198 -0.13154337 -0.10083279 0.031499565 -0.17924443 0.078829356 0.02163997 -0.17878133 -0.095739335 -0.017312597 0.07214592 -0.035746418 -0.077659115 0.040803257 -0.015483465 0.005284237 -0.04602267 -0.016456371 0.06398533 -0.0018245507 -0.049289517 -0.11651829 -0.06749563 -0.00033031983 0.039950583 -0.018983228 -0.050094645 0.024520678 0.014509459 0.03751663 0.1297251 -0.024661008 -0.008795464 -0.0052890885 0.047919337 -0.062456172 -0.07472822 -0.021222312 -0.124938674 0.1442943 0.25285465 -0.048015624 -0.11411474 -0.19663177 -0.036415614 0.09809407 -0.039027587 0.028724413 0.09032479 0.14403813 -0.102424264 0.08869634 0.20842612 0.07565102 -0.017322585 -0.043658856 -0.06815548 0.0514166 0.04201062 0.009297645 0.13036123 -0.066176705 0.014177993 0.17054293 -0.078919575 -0.06851698 0.071699835 -0.007506575 0.015088833 -0.21216433 -0.16488051 -0.021901147 0.07563053 0.04708861 -0.23531231 -0.030507142 0.09897601 0.16801901 -0.27106395 -0.071876496 0.1380162 -0.04709492 0.13959207 0.0045404714 0.09801832 0.002197951 0.100643 0.046532735 -0.16313101 0.12892875 0.082511745 -0.0023079952 -0.25161204 0.01863107 0.102435686 0.015060585 0.01920917 0.060433447 0.077072464 0.21500903 -0.022420248 0.027179811 0.10525091 0.010012137 -0.059978995 -0.10797971 0.17708105 0.15537013 0.10624888 -0.13568902 0.03407729 0.02862245 -0.09157255 -0.022605924 0.052833237 -0.15144873 0.20511854 0.12902439 0.065873496 -0.18306297 0.00801571 -0.10063178 -0.043405626 -0.023131305 -0.0700829
9 0.1863763 0.09495402 0.14605288 0.14947386 -0.19190563 -0.07733101 0.0046486002 -0.12390402 0.063299544 0.112879515 -0.058753293 -0.022937711 0.0775504 0.22023332 -0.11077234 -0.15071025 0.0791373 0.045473866 -0.028175943 -0.09772663 -0.027644629 0.13147824 0.14376348 -0.04373869 -0.11269468 -0.050410368 0.10415556 0.0145433955 -0.103073806 -0.09336205 0.1819011 0.13662648 0.15583666 0.11723503 -0.04434571 -0.05393397 -0.11998621 -0.02091137 -0.26217127 -0.24827921 -0.023963176 -0.07829067 0.00857094 0.23112527 -0.08129449 -0.0619986 -0.10842502 -0.014694961 0.04010104 -0.06668865 0.0198076 0.022514693 0.06775535 -0.026637632 0.16719344 0.14262117 -0.031031268 0.028061872 -0.17664875 0.039901953 0.086074576 -0.054220524 0.018470021 0.2761713 -0.042714007 -0.03144548 0.13050628 -0.011444884 0.0014139513 -0.03167948 -0.025750179 -0.008408456 -0.025719376 -0.07130685 -0.045005064 -0.03376825 0.044631936 -0.10222389 -0.019944951 0.063348606 0.044246014 -0.09642674 -0.031467315 0.06267607 -0.072789066 0.051907245 -0.062040303 -0.041801184 -0.0016449739 0.11698456 0.055093784 -0.017263787 0.048655163 -0.016301977 0.018567475 -0.09531498 0.04326261 -0.038749002 -0.003760797 -0.03618773 0.013496308 0.0057550077 0.1097389 -0.07522384 0.024191521 0.019596094 0.031303417 0.0148874195 -0.015329884 0.036955148 0.042060055 0.044270486 -0.056928687 -0.03166644 0.0055389544 -0.05607503 -0.0020658546 0.09544835 -0.09700898 0.057557054 0.029965175 0.029974267 -0.05764494 -0.0078881765 -0.073870555 -0.02614557 0.03751947 0.013855439
0 0.17024554 0.09704062 0.13471735 0.14561684 -0.16950694 -0.064718656 0.0013410582 -0.09703108 0.044520028 0.10744311 -0.031668767 -0.009183641 0.07776285 0.19733657 -0.103314266 -0.12864663 0.0703539 0.047763485 -0.032298945 -0.08349354 -0.02101377 0.116926044 0.13274285 -0.034528572 -0.10906131 -0.039778408 0.11384804 0.009202983 -0.105346285 -0.09033017 0.19256943 0.14592063 0.15549172 0.109230325 -0.047451608 -0.058469526 -0.12775825 -0.021301968 -0.26601064 -0.24876225 -0.024199827 -0.06708546 -0.009294433 0.20677984 -0.07240847 -0.04675258 -0.0860463 -0.008100777 0.03267991 -0.062585 0.020250747 0.014052166 0.053964756 -0.014513029 0.16706933 0.122878104 -0.035253 0.03699385 -0.20344292 0.04909605 0.09823727 -0.064803 0.01819599 0.31911004 -0.038301375 -0.03334246 0.12170534 -0.010567756 0.008093167 -0.03200645 -0.024784224 -0.008516849 -0.031162754 -0.08969078 -0.050984986 -0.037060592 0.051690124 -0.1279227 -0.02994644 0.075494625 0.043274958 -0.107581295 -0.03274526 0.07401973 -0.08140935 0.055421866 -0.072882414 -0.044460963 -0.003593483 0.14237955 0.07476818 -0.023363179 0.06325368 -0.019012865 0.025573442 -0.12137363 0.046664435 -0.04956083 -0.0048368094 -0.04516063 0.015229281 0.01411476 0.14414176 -0.10050768 0.03169539 0.021263624 0.04308215 0.017147487 -0.023872022 0.04803435 0.052394815 0.06437105 -0.07769966 -0.038494527 0.007414144 -0.07113299 0.00032001856 0.12500918 -0.12966023 0.07707191 0.04536089 0.046530258 -0.0804189 -0.009096422 -0.10292805 -0.0407909 0.052964732 0.01728407
8 0.10696508 0.049794737 0.08156492 0.08287891 -0.11559695 -0.051811643 0.0017499953 -0.05248596 0.046230976 0.08844061 -0.04633956 -0.028616104 0.06368746 0.17583863 -0.097190395 -0.12684938 0.06823934 0.05071582 -0.030327264 -0.07403059 -0.02400334 0.10931481 0.11577442 -0.03689658 -0.08779344 -0.026949836 0.094574004 0.017620571 -0.08305168 -0.08919087 0.16308798 0.12382773 0.12188717 0.10561247 -0.03201409 -0.049180392 -0.101382904 -0.01589591 -0.23200846 -0.21148853 -0.027401004 -0.075084135 0.014753152 0.20690309 -0.07710777 -0.063170515 -0.08287492 -0.017310288 0.025954902 -0.06251356 0.018505242 0.0394691 0.08373749 -0.023248551 0.18160552 0.13097842 -0.028715368 0.029763646 -0.16720806 0.042784214 0.08332094 -0.047501035 0.018122576 0.27980468 -0.036750603 -0.04306505 0.12700592 -0.006564587 -0.0027961985 -0.016016414 -0.031649232 -0.0050648185 -0.082077995 -0.15530312 -0.07426564 -0.034444757 0.06387953 -0.22133747 -0.05000257 0.109657824 0.09737272 -0.20509906 -0.062176403 0.102317765 -0.12507592 0.10080125 -0.07451404 -0.03459009 -0.01469981 0.1773012 0.07354144 -0.047826093 0.09117674 -0.012644539 0.027014159 -0.15274748 0.06203638 -0.042453576 0.0041332333 -0.051805764 0.017980043 0.021264488 0.16864821 -0.096776836 0.045966197 0.026859822 0.040383883 0.01844199 -0.02428581 0.047789384 0.066253096 0.060036357 -0.08527768 -0.03040335 0.01351742 -0.06866562 -0.009747801 0.116276346 -0.12591547 0.07390676 0.049734447 0.049906358 -0.09170412 -0.01175391 -0.11412371 -0.042900037 0.0417212 0.009344839
7 0.12932178 -0.015917338 0.10167732 0.027790867 -0.11738223 -0.12874329 0.04791741 -0.21030915 0.09760869 -0.009916728 -0.24072973 -0.14081259 -0.049422346 0.02107232 -0.0035203337 -0.068239555 0.02324182 -0.038414128 0.017877525 -0.019683897 -0.027582683 0.056846198 -0.054436445 -0.052901544 -0.10806585 -0.067663446 -0.052820325 0.04881114 0.031474765 -0.030596282 -0.056381688 -0.043311775 -0.03440665 0.12843266 -0.0038017824 -0.0059298165 0.058304727 0.07921298 0.035277214 0.01807343 -0.007809615 -0.14539455 0.19980755 0.24515782 -0.019059377 -0.1378761 -0.21930553 -0.05128447 0.11578199 -0.019414851 0.03845925 0.1300651 0.16758491 -0.12893273 0.04102051 0.20884538 0.12436081 -0.050248504 0.04344036 -0.10997961 0.03122437 0.0861549 -0.006061458 0.020375276 -0.08985079 0.02583146 0.22710118 -0.12275541 -0.10871908 0.119493924 -0.013679353 0.019913094 -0.32403955 -0.26939356 -0.030059205 0.11619605 0.056953724 -0.37810335 -0.04693998 0.1559577 0.2711534 -0.43342274 -0.11742375 0.20613791 -0.08963209 0.21076158 0.022219425 0.16417274 0.007173046 0.13423969 0.05662471 -0.23987834 0.19894944 0.13527218 -0.02201881 -0.3643375 0.0134369405 0.17067935 0.030597348 0.055212084 0.0974517 0.124181904 0.30158713 -0.0033111593 0.045684494 0.13974331 -0.0059907497 -0.10487116 -0.14658457 0.24486728 0.21410507 0.13393822 -0.15288202 0.069160126 0.03907471 -0.0922537 -0.03358372 0.024649229 -0.1481552 0.26349798 0.18719247 0.10093823 -0.2580827 0.012414914 -0.14396034 -0.067590885 -0.042607132 -0.1204908
5 0.093319505 0.008530655 0.07572567 0.037773725 -0.10323451 -0.074871905 0.024379415 -0.12204817 0.07288184 0.049367923 -0.14012292 -0.07650564 0.014972617 0.12680364 -0.0653438 -0.112813585 0.05240364 0.011045064 -0.0044508707 -0.06496446 -0.025792934 0.102213874 0.05567532 -0.052011453 -0.10048384 -0.05151302 0.032497898 0.028463056 -0.042037755 -0.06602886 0.08102503 0.058262724 0.06870858 0.12699814 -0.028526723 -0.023649186 -0.04087204 0.024640951 -0.13255627 -0.1294368 -0.023439793 -0.11188389 0.09780828 0.2447878 -0.06206615 -0.10219461 -0.15831046 -0.03408824 0.06315508 -0.049293738 0.030692998 0.072459646 0.12673499 -0.07630132 0.13222939 0.1848094 0.037298612 0.0016437538 -0.078046404 -0.026990842 0.057431202 0.008211896 0.012723608 0.16823964 -0.049083527 -0.015693039 0.14024617 -0.04511584 -0.038081363 0.037127893 -0.01867565 0.0038098227 -0.1594073 -0.15823266 -0.04470421 0.026460068 0.042978816 -0.2224847 -0.035172597 0.10029972 0.14269358 -0.24792178 -0.06735294 0.11978736 -0.07939129 0.12131984 -0.016592408 0.049545873 -0.008393066 0.13192563 0.05280935 -0.11730154 0.11425916 0.051668085 0.01079218 -0.20926629 0.036730964 0.045757506 0.013003755 -0.009103906 0.044448115 0.057729144 0.18676263 -0.036893092 0.035105415 0.07093952 0.016500175 -0.028816938 -0.0765734 0.12583783 0.122105666 0.08257139 -0.11046673 0.016820613 0.029973313 -0.078782864 -0.019026076 0.07563434 -0.13290524 0.15395553 0.09521536 0.058430247 -0.14320154 -0.0017347115 -0.105200134 -0.04201442 -0.008315803 -0.039085522
[ 0.16491145 0.06778133 0.12709774 0.11557942 -0.17328648 -0.08487905 0.008453736 -0.13913114 0.06307299 0.08157252 -0.08537706 -0.044449285 0.045517884 0.16568446 -0.07957246 -0.11674008 0.06619915 0.02486232 -0.016121073 -0.07542876 -0.021600263 0.10486707 0.092363015 -0.041424636 -0.11580331 -0.056786448 0.069179446 0.019694172 -0.0749966 -0.0752828 0.13099892 0.095120154 0.1107446 0.10876172 -0.03911333 -0.041379638 -0.079792365 0.0011149417 -0.18858364 -0.18891643 -0.026225932 -0.09385918 0.044979185 0.23354219 -0.06330782 -0.07963887 -0.14014906 -0.019252775 0.059009798 -0.05808821 0.023340058 0.041540317 0.09174771 -0.049950104 0.14124243 0.16476022 -0.00040332126 0.01321209 -0.137976 0.00936526 0.078612 -0.024003299 0.008728039 0.23594134 -0.053743 -0.014950383 0.15061174 -0.039195716 -0.019921202 -0.0052840845 -0.015208128 0.0028173015 -0.07621918 -0.09434992 -0.030666377 -0.00060739886 0.046429086 -0.13534564 -0.019333774 0.071188495 0.07506821 -0.13697042 -0.038299367 0.0862669 -0.053767826 0.07128067 -0.04754029 0.0046230066 -0.0028895766 0.1071044 0.06140748 -0.06294006 0.07153548 0.014692158 0.010140425 -0.14204831 0.030642506 0.00041293222 -0.0024205858 -0.018167745 0.024286587 0.029217038 0.14831825 -0.07073484 0.019571885 0.03963863 0.026631704 -0.0029549543 -0.045282193 0.07806733 0.07273152 0.06702699 -0.08745401 -0.018062597 0.008758209 -0.068236955 -0.0051663294 0.09164818 -0.12129223 0.11292699 0.05867612 0.04208963 -0.09400974 -0.003771284 -0.08351778 -0.037080947 0.028693534 -0.0099327415
] 0.16459472 0.077397905 0.13408564 0.12582672 -0.16821519 -0.079885446 0.0068511665 -0.124889694 0.060745705 0.0882472 -0.08212634 -0.044541866 0.053328115 0.17429253 -0.09416225 -0.12712072 0.06963423 0.030558463 -0.017355256 -0.07792771 -0.025906652 0.11326806 0.1072522 -0.04478379 -0.11381508 -0.05232672 0.07731764 0.018121574 -0.078852415 -0.07785012 0.14280012 0.101224065 0.11865747 0.11544952 -0.037701704 -0.04568876 -0.091876306 -0.0057657976 -0.20764928 -0.19992921 -0.025957374 -0.085867174 0.03711419 0.22334278 -0.064642504 -0.07530904 -0.12427987 -0.017157206 0.052412827 -0.060308732 0.022949606 0.039521676 0.08570278 -0.04179543 0.14399038 0.14821269 0.002202019 0.019184198 -0.13346761 0.014408175 0.08138825 -0.024795432 0.014440911 0.23381944 -0.05223814 -0.01978896 0.1448043 -0.02695651 -0.017688686 -0.0014176702 -0.018660199 -0.00025814635 -0.08840171 -0.12693 -0.046195425 -0.005237257 0.052330624 -0.17646778 -0.03128547 0.0889531 0.088644385 -0.17371897 -0.052589543 0.09827435 -0.08098202 0.088727556 -0.058415096 -0.002714142 -0.008163765 0.13478513 0.06687708 -0.06301473 0.09062128 0.010897127 0.013915233 -0.1651986 0.04523443 -0.0024262604 -0.00042527082 -0.020663837 0.029479327 0.0322245 0.16991675 -0.07771461 0.03435283 0.044759914 0.031323902 -0.006091869 -0.05043683 0.08259383 0.084323436 0.06920636 -0.091990516 -0.015510527 0.0086602 -0.06856541 -0.004504579 0.09604346 -0.12635103 0.11215066 0.06829128 0.053145282 -0.11134861 -0.004360881 -0.100517154 -0.044538412 0.032079138 -0.010669262
